digraph Tree {
0 [label="Shot Dist <= 4.8500\ngini = 0.499995700071\nsamples = 341", shape="box"] ;
1 [label="Touch Time <= 0.9500\ngini = 0.439667590028\nsamples = 95", shape="box"] ;
0 -> 1 ;
2 [label="gini = 0.2449\nsamples = 35\nvalue = [ 30.   5.]", shape="box"] ;
1 -> 2 ;
3 [label="gini = 0.4911\nsamples = 60\nvalue = [ 34.  26.]", shape="box"] ;
1 -> 3 ;
4 [label="Shot Clock <= 10.3500\ngini = 0.491539427589\nsamples = 246", shape="box"] ;
0 -> 4 ;
5 [label="Closest Defender Distance <= 12.1000\ngini = 0.464308606725\nsamples = 131", shape="box"] ;
4 -> 5 ;
6 [label="Shot Clock <= 9.8500\ngini = 0.458866654648\nsamples = 129", shape="box"] ;
5 -> 6 ;
7 [label="Shot Clock <= 9.2000\ngini = 0.472438563327\nsamples = 115", shape="box"] ;
6 -> 7 ;
8 [label="Shot Clock <= 8.7500\ngini = 0.462809917355\nsamples = 110", shape="box"] ;
7 -> 8 ;
9 [label="Closest Defender Distance <= 6.1500\ngini = 0.471655328798\nsamples = 105", shape="box"] ;
8 -> 9 ;
10 [label="gini = 0.4886\nsamples = 73\nvalue = [ 31.  42.]", shape="box"] ;
9 -> 10 ;
11 [label="gini = 0.4043\nsamples = 32\nvalue = [  9.  23.]", shape="box"] ;
9 -> 11 ;
12 [label="gini = 0.0000\nsamples = 5\nvalue = [ 0.  5.]", shape="box"] ;
8 -> 12 ;
13 [label="gini = 0.3200\nsamples = 5\nvalue = [ 4.  1.]", shape="box"] ;
7 -> 13 ;
14 [label="gini = 0.2449\nsamples = 14\nvalue = [  2.  12.]", shape="box"] ;
6 -> 14 ;
15 [label="gini = 0.0000\nsamples = 2\nvalue = [ 2.  0.]", shape="box"] ;
5 -> 15 ;
16 [label="Shot Clock <= 13.9000\ngini = 0.49965973535\nsamples = 115", shape="box"] ;
4 -> 16 ;
17 [label="gini = 0.4486\nsamples = 53\nvalue = [ 35.  18.]", shape="box"] ;
16 -> 17 ;
18 [label="gini = 0.4745\nsamples = 62\nvalue = [ 24.  38.]", shape="box"] ;
16 -> 18 ;
}