digraph Tree {
0 [label="Shot Dist <= 4.9500\ngini = 0.499791753436\nsamples = 245", shape="box"] ;
1 [label="Touch Time <= 3.7500\ngini = 0.451022667677\nsamples = 131", shape="box"] ;
0 -> 1 ;
2 [label="Shot Clock <= 4.5000\ngini = 0.408163265306\nsamples = 105", shape="box"] ;
1 -> 2 ;
3 [label="gini = 0.4861\nsamples = 12\nvalue = [ 5.  7.]", shape="box"] ;
2 -> 3 ;
4 [label="Shot Clock <= 23.9000\ngini = 0.372297375419\nsamples = 93", shape="box"] ;
2 -> 4 ;
5 [label="Touch Time <= -1.6000\ngini = 0.351239669421\nsamples = 88", shape="box"] ;
4 -> 5 ;
6 [label="gini = 0.0000\nsamples = 1\nvalue = [ 0.  1.]", shape="box"] ;
5 -> 6 ;
7 [label="Shot Dist <= 1.8500\ngini = 0.34139252213\nsamples = 87", shape="box"] ;
5 -> 7 ;
8 [label="gini = 0.1107\nsamples = 17\nvalue = [ 16.   1.]", shape="box"] ;
7 -> 8 ;
9 [label="gini = 0.3820\nsamples = 70\nvalue = [ 52.  18.]", shape="box"] ;
7 -> 9 ;
10 [label="gini = 0.4800\nsamples = 5\nvalue = [ 2.  3.]", shape="box"] ;
4 -> 10 ;
11 [label="gini = 0.4882\nsamples = 26\nvalue = [ 11.  15.]", shape="box"] ;
1 -> 11 ;
12 [label="Shot Clock <= 12.7000\ngini = 0.450138504155\nsamples = 114", shape="box"] ;
0 -> 12 ;
13 [label="gini = 0.3846\nsamples = 77\nvalue = [ 20.  57.]", shape="box"] ;
12 -> 13 ;
14 [label="gini = 0.4996\nsamples = 37\nvalue = [ 19.  18.]", shape="box"] ;
12 -> 14 ;
}