digraph Tree {
0 [label="Shot Dist <= 9.1500\ngini = 0.496815005841\nsamples = 213", shape="box"] ;
1 [label="Closest Defender Distance <= 2.3500\ngini = 0.400745024998\nsamples = 101", shape="box"] ;
0 -> 1 ;
2 [label="gini = 0.4819\nsamples = 42\nvalue = [ 25.  17.]", shape="box"] ;
1 -> 2 ;
3 [label="gini = 0.3034\nsamples = 59\nvalue = [ 48.  11.]", shape="box"] ;
1 -> 3 ;
4 [label="Closest Defender Distance <= 3.5500\ngini = 0.46875\nsamples = 112", shape="box"] ;
0 -> 4 ;
5 [label="gini = 0.3856\nsamples = 46\nvalue = [ 12.  34.]", shape="box"] ;
4 -> 5 ;
6 [label="gini = 0.4959\nsamples = 66\nvalue = [ 30.  36.]", shape="box"] ;
4 -> 6 ;
}