digraph Tree {
0 [label="Shot Dist <= 4.6500\ngini = 0.499071046373\nsamples = 232", shape="box"] ;
1 [label="gini = 0.4478\nsamples = 65\nvalue = [ 43.  22.]", shape="box"] ;
0 -> 1 ;
2 [label="Touch Time <= 7.1500\ngini = 0.482770984976\nsamples = 167", shape="box"] ;
0 -> 2 ;
3 [label="Shot Clock <= 9.6000\ngini = 0.495867768595\nsamples = 121", shape="box"] ;
2 -> 3 ;
4 [label="gini = 0.4712\nsamples = 50\nvalue = [ 19.  31.]", shape="box"] ;
3 -> 4 ;
5 [label="gini = 0.4999\nsamples = 71\nvalue = [ 36.  35.]", shape="box"] ;
3 -> 5 ;
6 [label="gini = 0.4055\nsamples = 46\nvalue = [ 13.  33.]", shape="box"] ;
2 -> 6 ;
}