digraph Tree {
0 [label="Shot Dist <= 6.8000\ngini = 0.499761636887\nsamples = 229", shape="box"] ;
1 [label="Touch Time <= 5.0500\ngini = 0.416584011109\nsamples = 71", shape="box"] ;
0 -> 1 ;
2 [label="gini = 0.2778\nsamples = 36\nvalue = [ 30.   6.]", shape="box"] ;
1 -> 2 ;
3 [label="gini = 0.4898\nsamples = 35\nvalue = [ 20.  15.]", shape="box"] ;
1 -> 3 ;
4 [label="Shot Dist <= 21.2500\ngini = 0.488463387278\nsamples = 158", shape="box"] ;
0 -> 4 ;
5 [label="Shot Clock <= 13.4500\ngini = 0.462408949011\nsamples = 124", shape="box"] ;
4 -> 5 ;
6 [label="Touch Time <= 5.5000\ngini = 0.418957665711\nsamples = 77", shape="box"] ;
5 -> 6 ;
7 [label="gini = 0.4628\nsamples = 44\nvalue = [ 16.  28.]", shape="box"] ;
6 -> 7 ;
8 [label="gini = 0.3343\nsamples = 33\nvalue = [  7.  26.]", shape="box"] ;
6 -> 8 ;
9 [label="gini = 0.4980\nsamples = 47\nvalue = [ 22.  25.]", shape="box"] ;
5 -> 9 ;
10 [label="gini = 0.4567\nsamples = 34\nvalue = [ 22.  12.]", shape="box"] ;
4 -> 10 ;
}