digraph Tree {
0 [label="Shot Dist <= 7.1000\ngini = 0.490869247626\nsamples = 74", shape="box"] ;
1 [label="gini = 0.2604\nsamples = 13\nvalue = [ 11.   2.]", shape="box"] ;
0 -> 1 ;
2 [label="Shot Clock <= 7.8000\ngini = 0.451491534534\nsamples = 61", shape="box"] ;
0 -> 2 ;
3 [label="Shot Clock <= 5.5000\ngini = 0.5\nsamples = 22", shape="box"] ;
2 -> 3 ;
4 [label="Shot Dist <= 19.7000\ngini = 0.391111111111\nsamples = 15", shape="box"] ;
3 -> 4 ;
5 [label="gini = 0.0000\nsamples = 7\nvalue = [ 0.  7.]", shape="box"] ;
4 -> 5 ;
6 [label="gini = 0.5000\nsamples = 8\nvalue = [ 4.  4.]", shape="box"] ;
4 -> 6 ;
7 [label="gini = 0.0000\nsamples = 7\nvalue = [ 7.  0.]", shape="box"] ;
3 -> 7 ;
8 [label="Closest Defender Distance <= 5.6000\ngini = 0.381328073636\nsamples = 39", shape="box"] ;
2 -> 8 ;
9 [label="Shot Clock <= 12.4500\ngini = 0.2112\nsamples = 25", shape="box"] ;
8 -> 9 ;
10 [label="gini = 0.0000\nsamples = 13\nvalue = [  0.  13.]", shape="box"] ;
9 -> 10 ;
11 [label="gini = 0.3750\nsamples = 12\nvalue = [ 3.  9.]", shape="box"] ;
9 -> 11 ;
12 [label="Closest Defender Distance <= 6.9500\ngini = 0.5\nsamples = 14", shape="box"] ;
8 -> 12 ;
13 [label="gini = 0.4898\nsamples = 7\nvalue = [ 4.  3.]", shape="box"] ;
12 -> 13 ;
14 [label="gini = 0.4898\nsamples = 7\nvalue = [ 3.  4.]", shape="box"] ;
12 -> 14 ;
}