digraph Tree {
0 [label="Shot Dist <= 9.5000\ngini = 0.495497895466\nsamples = 274", shape="box"] ;
1 [label="Closest Defender Distance <= 2.0500\ngini = 0.45848893996\nsamples = 118", shape="box"] ;
0 -> 1 ;
2 [label="gini = 0.4999\nsamples = 59\nvalue = [ 29.  30.]", shape="box"] ;
1 -> 2 ;
3 [label="gini = 0.3240\nsamples = 59\nvalue = [ 47.  12.]", shape="box"] ;
1 -> 3 ;
4 [label="Shot Clock <= 14.2000\ngini = 0.426035502959\nsamples = 156", shape="box"] ;
0 -> 4 ;
5 [label="gini = 0.3644\nsamples = 96\nvalue = [ 23.  73.]", shape="box"] ;
4 -> 5 ;
6 [label="gini = 0.4861\nsamples = 60\nvalue = [ 25.  35.]", shape="box"] ;
4 -> 6 ;
}