digraph Tree {
0 [label="Closest Defender Distance <= 6.2500\ngini = 0.495351713984\nsamples = 363", shape="box"] ;
1 [label="Shot Dist <= 6.1500\ngini = 0.483740929858\nsamples = 305", shape="box"] ;
0 -> 1 ;
2 [label="Touch Time <= 1.1500\ngini = 0.481025468038\nsamples = 77", shape="box"] ;
1 -> 2 ;
3 [label="gini = 0.3750\nsamples = 36\nvalue = [ 27.   9.]", shape="box"] ;
2 -> 3 ;
4 [label="gini = 0.4973\nsamples = 41\nvalue = [ 19.  22.]", shape="box"] ;
2 -> 4 ;
5 [label="Shot Clock <= 5.7500\ngini = 0.452870113881\nsamples = 228", shape="box"] ;
1 -> 5 ;
6 [label="gini = 0.2499\nsamples = 41\nvalue = [  6.  35.]", shape="box"] ;
5 -> 6 ;
7 [label="Shot Clock <= 12.8500\ngini = 0.475964425634\nsamples = 187", shape="box"] ;
5 -> 7 ;
8 [label="Shot Clock <= 8.3500\ngini = 0.49302498605\nsamples = 127", shape="box"] ;
7 -> 8 ;
9 [label="gini = 0.4997\nsamples = 41\nvalue = [ 21.  20.]", shape="box"] ;
8 -> 9 ;
10 [label="Shot Clock <= 10.3500\ngini = 0.482693347756\nsamples = 86", shape="box"] ;
8 -> 10 ;
11 [label="gini = 0.4346\nsamples = 47\nvalue = [ 15.  32.]", shape="box"] ;
10 -> 11 ;
12 [label="gini = 0.4997\nsamples = 39\nvalue = [ 20.  19.]", shape="box"] ;
10 -> 12 ;
13 [label="gini = 0.4061\nsamples = 60\nvalue = [ 17.  43.]", shape="box"] ;
7 -> 13 ;
14 [label="gini = 0.4405\nsamples = 58\nvalue = [ 39.  19.]", shape="box"] ;
0 -> 14 ;
}