digraph Tree {
0 [label="Shot Dist <= 5.0500\ngini = 0.498724619937\nsamples = 99", shape="box"] ;
1 [label="gini = 0.4043\nsamples = 32\nvalue = [ 23.   9.]", shape="box"] ;
0 -> 1 ;
2 [label="Shot Clock <= 12.2500\ngini = 0.459790599243\nsamples = 67", shape="box"] ;
0 -> 2 ;
3 [label="gini = 0.3282\nsamples = 29\nvalue = [  6.  23.]", shape="box"] ;
2 -> 3 ;
4 [label="gini = 0.4986\nsamples = 38\nvalue = [ 18.  20.]", shape="box"] ;
2 -> 4 ;
}