digraph Tree {
0 [label="Shot Dist <= 3.8500\ngini = 0.498966942149\nsamples = 308", shape="box"] ;
1 [label="gini = 0.3953\nsamples = 59\nvalue = [ 43.  16.]", shape="box"] ;
0 -> 1 ;
2 [label="Shot Clock <= 11.0500\ngini = 0.486443767036\nsamples = 249", shape="box"] ;
0 -> 2 ;
3 [label="Closest Defender Distance <= 2.2500\ngini = 0.42\nsamples = 120", shape="box"] ;
2 -> 3 ;
4 [label="gini = 0.3270\nsamples = 34\nvalue = [  7.  27.]", shape="box"] ;
3 -> 4 ;
5 [label="Touch Time <= 2.7000\ngini = 0.446998377501\nsamples = 86", shape="box"] ;
3 -> 5 ;
6 [label="gini = 0.4082\nsamples = 56\nvalue = [ 16.  40.]", shape="box"] ;
5 -> 6 ;
7 [label="gini = 0.4911\nsamples = 30\nvalue = [ 13.  17.]", shape="box"] ;
5 -> 7 ;
8 [label="Closest Defender Distance <= 3.8500\ngini = 0.498527732708\nsamples = 129", shape="box"] ;
2 -> 8 ;
9 [label="Shot Dist <= 6.7000\ngini = 0.4971875\nsamples = 80", shape="box"] ;
8 -> 9 ;
10 [label="gini = 0.4989\nsamples = 42\nvalue = [ 22.  20.]", shape="box"] ;
9 -> 10 ;
11 [label="gini = 0.4778\nsamples = 38\nvalue = [ 15.  23.]", shape="box"] ;
9 -> 11 ;
12 [label="gini = 0.4648\nsamples = 49\nvalue = [ 31.  18.]", shape="box"] ;
8 -> 12 ;
}